{"input_weights": [[-0.13998433307919037, -2.1720483861279156, 0.8783315643714464, -1.3739325394438662, -1.1352738529584223, 0.7808394332559365, 0.2623470983048343, -0.8070003334685806, -0.5022103373270629, -0.6325998103125562], [-0.7676222955302262, -0.4490201097849136, 0.9814926715520187, -0.4544928692543614, -0.3897399989352057, -0.13987015417233642, 0.5017336493019652, 0.06178567364500818, 0.2934677356182815, 1.0692231079847552], [1.6893831748594357, 0.6647905809993402, 0.46923868199010604, -0.8279464434047038, 0.014188080480692776, 0.43551955298417083, -0.6746350774940691, -0.016890344485045342, -1.5712574089902964, -0.3512507817741797]], "output_weights": [[1.3270354353276912, -1.0510615585422876], [1.7052708832425874, 1.6203687229569739], [-0.1860999885754393, -1.2576407375459415], [0.3019783245273268, 1.0344091708159546], [1.1154932142781406, 0.28417975322843025], [0.385788912975316, -1.1328149040303161], [-0.6879463712586844, -0.4814940545421617], [0.3792287545200084, 0.19507829315576425], [-0.9063893090237428, 1.3952512699617077], [0.437542671133717, -0.2735686678703782]]}